0.09124340748601459 -0.04995587142292793 0.0661898680559891 -0.03232822077237412 0.03686780982584592 0.18149081114943819 -0.08705050472808025 -0.12155369639838974 0.03110271012433956 -0.02785583290242002 -0.05848813719121111 0.015651162455295388 0.1761368095682017 -0.1578006525080558 -0.10236278211621097
-0.11902712048893971 0.17927820557589627 0.17719444230926637 -0.16636466584497311 0.1499315946432924 -0.061131496491002094 -0.1174531407625512 -0.17921474795669423 -0.13544145200692284 -0.18720010026409814 0.19109359005798315 -0.14070949497585403 -0.028871547864076065 -0.1882359884676602 -0.15438814909015275
-0.0010915891783096043 0.19379775566412408 -0.13516540736635166 0.17432006167884798 -0.06649822109838102 -0.015783753559476255 0.11899191810128601 0.02793083982080402 -0.010999980759250107 0.0022815616145972053 -0.19876186796506237 0.13494523286725055 -0.04299750468786572 0.16066266983615873 0.08699668555142002
-0.010189247670913516 0.1537570170890239 0.15087669956943905 0.11206201703414154 0.030794296490162368 -0.038184372182545 -0.1993245706740699 0.07963204495705525 -0.030759529019796707 -0.004836566487475835 -0.04422423618058327 -0.022181327429379616 -0.1880765390727402 0.14475138888332437 0.15596936265943284
-0.11587792416690529 -0.020225853059377075 -0.19188932056228306 0.12553219317663272 -0.025112274767252397 0.1110469401554354 0.08311315790749015 0.04882867683166836 -0.0882057357294889 0.0040616812648398785 -0.07551085164815655 0.16538266899594878 -0.06746546373346148 -0.011308220209755727 0.09690854449466868
0.023274378546971564 0.16052435637081786 0.011294259728576339 -0.06174086428053363 -0.015789505712569384 0.15345361835540353 -0.09186124610538143 0.14233066345390807 -0.09981002426716748 0.11418884656751348 -0.09656513912689256 -0.1706187720694838 -0.1743217175768114 -0.17600484877987108 0.06639219099349938
