0.1696872828351312 0.18668602853577823 -0.10280206192462692 -0.020635365257057538 -0.017698797370697194 -0.17511750782524427 0.11969790253390494 0.06674361382657681 0.05138412740509435 0.12949857598601616 -0.11380629481212129 -0.1123286715568661 -0.11483965835410222 -0.032495138671808775 -0.09270498754088106
0.07502705699155672 0.1172043661227475 -0.09236199365461953 0.1359954356216301 0.14078383067081698 -0.10333030853807551 0.18711013962165854 -0.018888482466467196 0.175887320585139 0.1180932228606829 0.08561289718310734 0.12253599902806855 0.0030205108499434807 0.08243590811613424 -0.16468048280426528
-0.1034740342842226 0.052441170698876466 0.09966902072588257 -0.08118719305570142 -0.12657342834980195 0.19642442830515444 0.013157688387841527 0.1911599199788183 0.15216501196240492 0.08874117497848438 0.1266067926769576 0.1431606749198447 -0.15270774423328204 0.17523977897856075 0.05211594818970133
-0.16621376947670374 -0.06331511820026221 0.17166169993877345 0.09214749745613071 -0.0692727365284088 0.1488494595625376 -0.1823358058887764 -0.010253169626817549 -0.06736215556490666 -0.15371543969061038 -0.13578442332614485 -0.1274008676166225 0.18433435484860847 -0.06849096816902862 -0.19146806463622937
0.1291005418539883 0.08492784011474118 0.11765033358076052 -0.13552681144839948 -0.05005853970835581 0.01810574492973016 -0.023967513899018925 0.1411695349543472 0.05558446512166207 0.08226343361876452 0.1788554257368362 -0.11716512861684572 0.1734371401007164 0.1061320433664291 0.19400424554984325
0.127215728248436 -0.13513111478639384 0.15122962294973374 0.02585229177984605 0.195325198853494 0.006068479654541959 -0.19492797711943388 0.06561707312056937 0.09389120266631941 0.16566789137098886 -0.04768026779652859 0.003489971840455031 0.18271318667018632 -0.029376395023004067 0.17245741093259803
