0.14221581553698692 0.5529267754474567 -0.456101057595134 0.4795211592293337 0.36934325783149136 0.8767958263805997 0.4528316264654768 0.5136793476523541 0.25340888890742785 0.9217225140927152 -0.5599021989865993 -0.8138121145398035 -0.2427873005463851 -0.5849519528700092 0.04039910071470332
-0.10112622497485546 0.11926186550470497 0.649534887950513 -0.4794336437021446 -0.002843485475267027 0.1534658210739438 0.5551977322176435 -0.9993973665930078 -0.8404569239100779 0.5176643499491522 -0.3674635995230877 0.6327228197240204 -0.9960826048897811 0.9462482527966904 -0.25164700686381425
0.07141175163498903 -0.6963845934513359 -0.04611776335453366 -0.6745026724710331 -0.4189990678480565 -0.9607652618516246 -0.7908525136908605 -0.9636148763993281 -0.812659445339612 0.3046795248285341 0.8898555235361504 -0.07826594482319227 0.7211862489033508 -0.29367986838473603 0.8840629067428297
-0.42008984386061876 0.5158055484565025 0.6671412120227054 -0.8827421417059149 0.031245070556295773 0.2593329666413253 0.9349275771708595 0.8926488753952865 -0.4954505580213949 0.06601456652301696 0.7723105982734997 0.19453895666958265 -0.5357138721889213 -0.3973673603595709 0.3593607057109617
