-0.11191797275288062 0.06706409939578957 -0.1003152043235275 -0.026753379302105043 0.15346414560788754 -0.053470412946490686 0.15488370230472032 0.16602824624526052 -0.04973650355623343 -0.13125237135980164 0.15002270433962137 0.1288361521131007
-0.16788595777089055 -0.1691393123297397 -0.16139459574082804 -0.005266853135500061 0.08070966635510715 0.1474498615589345 -0.0406263790462206 0.4886301095919102 0.04227185441770982 -0.12797609312818925 -0.01814831523145748 0.16240563292612364
-0.08887587766803372 -0.08451141458856007 -0.19253266214783632 0.06988611122499862 -0.006767646706052056 -0.17691721859940213 -0.11762368250545699 -0.10431620419999255 -0.16194153461060312 0.19199542494175012 0.19336209769754872 -0.10987613322984827
0.6461341015060158 0.16843409565527134 0.14271565526226682 -0.04027109490657073 -0.15428023352413656 -0.4270094064002308 -0.014417369121155366 0.18837907031929083 -0.17594394537005809 0.09048308035044 -0.00912239180829162 0.05512934715182949
-0.18032079752429742 -0.02981407836231207 0.17574776696118888 0.27338942818964185 0.1216920375288026 0.04423568785620411 -0.2456975084872839 -0.008008404302927952 -0.10932616134155669 0.17111362603774297 0.09076647554309032 -0.041605925966246106
-0.16643336456416802 -0.16657444874851834 0.1697541138808658 -0.13605416154180183 0.6161437596606972 -0.07717538205025312 -0.06964101918000974 0.03421949694663975 -0.07411342263333198 0.0681918595966069 0.07611935733470716 0.11248727916033596
-0.14028013969668537 -0.005849117560978146 -0.12852301126770324 0.37467511026569555 0.17424315322783857 0.0360547962146458 8.755484612614329E-4 -0.16236343380437926 -0.09326600105303262 -0.03654757639043038 0.06636949376163184 0.11792009920883495
