-0.3083471332109152 0.019821307227739227 0.2764400538014905 -0.2930055329196757 0.026365625627986944 0.31425838657350225 -0.07222121142474092 -0.17897587847047802 0.1934479972497415 0.03128475989075408 -0.10157936940838097 0.3831175864486436
0.15988348549862252 -0.03734090497790665 0.34689543709483295 0.05098428560272483 0.17079173400608416 -0.27855343138913746 0.3355698422013652 0.18517443507176112 0.08783981364478133 0.20901307413726378 0.391041958067201 0.25462946933854846
-0.004508539937677747 -0.3904939318520041 0.3434816202135682 0.3822122845052328 0.07404837316401103 0.26072696470594825 -0.05386564187711074 0.3457627197356056 0.42073996367093025 0.4914937367212745 -0.28456485429828793 0.07613040488136402
0.10832167352439304 -0.15527618313213432 -0.052204344615661924 0.4039982929966155 0.010940103816662106 -0.1499751502262886 0.48379286117062037 0.28579050510350257 -0.4357605872096436 0.4984487061226095 -0.4323894105479502 -0.17119272051264967
0.4297545597615037 0.2869483075909689 -0.4935297617632197 -0.38765665949886907 0.22596631266186773 0.23194958168533508 0.32643863755012215 -0.3073006342923751 -0.47474602780134423 0.3983178958349959 -0.18422150718351427 -0.07472095350678176
0.381494774781323 -0.2763190327391928 0.3503508015489153 0.37980758655997215 0.39250270674744314 -0.1656048936231479 0.3433046619357534 -0.386128801174196 0.25813371625227866 0.2704895463560465 -0.2074686275015325 -0.011010110675532592
-0.2544576825518695 0.1293542542140539 -0.3047745325385869 0.16950760123286346 -0.15160423977049275 -0.16763009509904792 -0.3384552454996791 -0.2668075669059682 -0.1760640284536571 -0.7115939679890388 0.14548826489616007 0.18567570029610514
