-0.550307806253601 -0.13469424837733257 0.2690852214316092 -0.3715360650772491 0.292857724672977 0.2616927284869406 -0.06440197478029552 0.08079885172697165 0.47371322519812986 0.17465412392635737 -0.3742472614611434 0.39557457996644096
0.33058064436853063 0.07015690434242439 0.4749361018721555 0.29618349229722707 0.8938835008072535 0.15974143305067312 0.3489175008202866 -0.7107029108044064 -0.37186315819622406 0.6049997724953667 -0.4152218624005918 -0.0809918064152163
-0.4149147694129367 0.1698155429094408 0.7882824251268667 0.2196696961952015 0.970515169621452 0.45621160981596787 -0.5342389138443878 -0.09695408216616774 -0.20052584238453397 0.3872695148584213 0.1576292171262268 0.4596068983472884
0.07393002677010563 -0.45297886970632495 0.20587150832111245 0.2432651725725028 0.4586881297287436 -0.3936516361725658 -0.1955611670082753 -0.24931712567242836 0.06176924202970824 0.029619601963498 -0.1470539749797969 -0.21319664496285218
-0.32040590595609564 0.685433706684363 0.08903364166930827 -0.7593302431535354 0.2794755333456249 0.583062416133475 0.043078201479715195 -0.005293350621349724 -0.14289854843559102 -0.43063433841880794 -0.09501104648873238 -0.28497485967500424
-0.2795870861821631 -0.4483268333808492 0.2911936765530748 -0.13991360701273636 0.48917200691206264 -0.4788104178338559 -0.3647274808646992 0.7098519923891015 0.37861017357614135 -0.01658266866074609 -0.7163181927518047 0.2966991246731089
-0.44317476554564006 -0.22780623468900318 0.09774929834962309 0.24474533213214944 -0.3974024202630517 -0.18309760893683424 0.12724054246573047 0.23416789516711578 0.21796957639533754 0.27266590540398095 -0.15618548005429866 -0.36750274404473815
