0.31771089448261713 -0.3185943706244502 -0.39546520637873694 0.3622532363097284 0.03474579924863619 0.043694839974819044 -0.07481969758410167 0.1535361852052326 -0.15453094235910125 -0.4402478337359099 -0.05248953201350448 0.11341590075204788
0.39661500654476556 -0.043078174938416924 -0.40326077933591287 0.33047079954505565 0.27546491053391664 -0.012068190080317343 0.15568456582371004 0.41857320611676485 -0.07474256789693912 0.0919688059292858 0.21283398038409673 -0.3652997660702487
-0.38908249110863047 0.3113591804916487 -0.01138085989370119 -0.1469796168009867 0.1997652647270849 0.37642809657714726 -0.02185991570464685 -0.06807771619371605 -0.07128835202956663 0.05635304718389933 -0.1886479684359864 -0.41277881455440335
0.010341463631681203 -0.24530515994532442 0.2672624860029137 -0.14488063175387922 0.2145924699371271 -0.3904753821146085 -0.002283366433650902 -0.3418810645789385 0.42697033462528333 0.004339800543549099 -0.25170274255165603 0.02102861461247152
-0.0779405643631853 0.08494197755580879 0.48381896503692645 -0.13903473137521516 0.27191482123140276 0.41354281993485376 0.055694027596262075 -0.13341727624213373 0.3135561915679864 0.13064271650698955 0.36711397506372434 0.2640875711180942
-0.17717490206799957 -0.27512348211362236 -0.1360117545511721 -0.14799955973390522 0.4930703402765112 0.412143457170952 0.2825759988833173 -0.35254866677132457 -0.04333125890010492 0.27368370600375935 -0.47378216035993204 -0.06069552080544793
-0.22645955207873292 0.31327563954397875 -0.3735676779650853 -0.2690355413159854 0.2891055759577039 0.027039539979665683 -0.3723007260093477 0.04292064295394615 0.27695705124787906 0.18972788894741832 0.3642173415879265 -0.4148144335714148
