-0.025788914412894104 0.5305561861835724 0.04593985430564751 0.24051796522782332 -0.3460754689674842 0.08391865200329596 -0.5591686259644408 -0.42350441084835977 0.7738742617654538 0.05169490607303395 -0.8192257800439701 -0.23514504960449856
-0.31151216226581535 0.868822384138076 0.8563392351401764 0.3437756807608997 -0.013500127099902781 0.139963297470302 -0.00289270483020565 -0.7163213764171703 -0.48723969188635863 0.7789287657401033 -0.16455478976512783 -0.21938896382995376
-0.8868097368483524 0.44518692205445587 0.352402156223809 -0.269466437284957 -0.6544117945360752 0.5482749035462409 0.021624627917407935 -0.438732299537813 -0.8968989108526407 0.8588682717442151 -0.059035394984569334 -0.05526118065888874
0.12243334907842018 0.2845978116435143 0.9998332770847487 0.08386641479974244 0.6838119498119778 0.45682668647545377 0.1801662708882691 -0.21477045767422565 -0.05634438190960578 0.4832695237409582 0.4141908806893916 0.7594319549767854
-0.44221622468761057 -0.08667914258564147 -0.46254808113583057 -0.9032552716418679 -0.859747244289517 -0.642356886954079 -0.9953985141895487 0.20001151065223244 -0.1114624379018273 0.601841108924058 0.08116693423912524 0.12842555406331468
0.8929089823030443 0.936050990880559 0.007600620388310775 -0.6427323066824268 -0.9150262928136318 -0.5220455846178883 0.6921904907750346 0.12064192270727248 0.6738361766558949 -0.5414065207285399 -0.21384801470749992 -0.9880281347582612
-0.3663665099917347 -0.6474496379607878 0.4182679090379776 0.733082905634573 -0.1720323529570199 0.8197762573071622 -0.8587966831878916 0.5263624266081239 0.4920232148941629 0.8692180415014025 0.9479130719889265 -0.35915176854927855
