-0.03205157102701191 0.1579120740830966 -0.1521599568064978 -0.06456094144598072 -0.029453785282933742 -0.15129013654878692 0.19522354896117108 -0.05155677416528222 0.19185056890787086 0.10085780243642178 -0.18265946773490402 0.014032886802890766 0.14104223468002017 -0.040620505390067056 0.1410386028384305
-0.06780590344022355 0.12237444584235808 0.15851499651526338 0.08730539302259249 0.16086015064650838 0.18499349102906476 -0.18451080478571194 -0.0333723151852503 0.006201854017160224 -0.020698783479691764 0.10148451548552054 -0.14203899997593702 0.06481357162127525 -0.11578045635418938 0.09248843734157308
-0.046589065376467925 0.09889653734670385 0.004578415666597957 0.17506813234614715 0.16725357944936212 0.09066714620619201 0.04293598918222208 -0.018298214326419204 -0.07764225937078395 -0.14335454204181586 0.10072435961782525 -0.1065069015522028 -0.19611831965692544 -0.14110272956320732 0.14934113775562752
-0.06153883733037011 -0.175109225382309 -0.17966107326562897 -0.07404849945648771 0.1435374737631288 0.192875406262016 -0.0724953390690343 -0.14166412554717464 -0.056523557883041864 0.11907068539151218 0.032437790329470896 0.16158587830744492 -0.1444300117828204 -0.15048562485772665 0.03763265814421062
0.1350360478857304 -0.11995966387130728 0.02725919221562796 0.04355167901876729 -0.12389403105409738 -0.13628983318061025 -0.10236472851408457 0.04168359690680168 0.026678087857329304 0.19839980164414497 -0.185356825101359 -0.12356491986072622 -0.040827107170800805 0.010227792045132224 0.07326653209948479
-0.014393241762174602 -0.11740109606478821 0.0631084930626015 0.13838796811981288 -0.058489122788358876 -0.10255098783036423 0.15383434186420072 -0.04181717824516898 -0.06721132879550144 0.19529769174464998 -0.013814195385051065 0.08657255288641569 -0.1370077353974208 -0.08455011488264944 -0.03915119687445521
-0.07352437490069623 0.03500104152403867 -0.0016545076945663874 -0.014762580488423405 -0.1467535055351395 0.0998278082195308 0.04902321928431182 -0.14820059632317079 0.1681652410040088 -0.021041142491035104 -0.19947910135090696 0.02005668200697346 -0.12220441145524062 -0.04334180009342053 -0.11078822752128188
