-0.4885820295757769 -0.37091306388412015 0.23102430224957526 -0.18482486995362202 0.3708560703658351 -0.34909441116072726 0.04597441198463148 -0.359878564678893 0.025216243219068457 -0.738604998845007 -0.18265227026577346 0.14587955916434303
0.08612517841272094 0.2206794561481027 -0.18428028650852113 -0.33037286775129204 -0.3885799766870224 -0.3827919458118938 0.153458029897503 -0.22314656769275076 0.1257884876558557 0.17652314245885625 -0.300913864411937 -0.2190069500274493
0.42093262200652715 0.211815424157915 0.3311664404916549 0.004610709351480224 0.37369338633658644 0.49170596859795646 -0.28533306316642204 -0.022045809390613957 -0.17573320371458367 0.06276858169012489 -0.4063761738065702 0.27665801139680446
-0.2895456911657729 -0.35706778582883547 0.19952185494758568 0.282995746226008 0.43724829097893525 -0.7268571566546363 -0.08057400123399838 0.32104241474769024 0.07484413790759537 -0.4055676885678664 -0.1732340362011573 -0.106814229198818
-0.2846966727343361 0.23971507936870573 -0.1894412378949778 -0.3261449122868272 0.009981661730749325 0.2367696224919641 0.33908825794401376 0.11279709152810535 0.40530136421522345 -0.26998882422421155 0.0664425146040667 0.23463593542814054
0.10671596123555716 -0.2709350259909118 0.4168863555668353 -0.022626901255970888 0.12919950254931334 -0.4739015972420625 -0.004350767568277458 -0.9562746015505854 0.17679179775426657 0.42368209191634487 0.3494002755076778 -0.41479222712630204
-0.2209891873057016 0.037149427487664366 -0.016420107492665648 -0.4639351395628053 -0.23167813744558174 -0.13406654244972016 0.35086641045497013 -0.4478825018658229 -0.4595476130175298 -0.1664164536828796 0.012401686146854107 -0.2335612093888748
