-0.15742392034236663 -0.3187295826421339 -0.88532106183595 -0.3589337865404384 0.26911709161217034 -0.15261001419791864 -0.5318737679073782 0.8730031439326742 -0.2562961489725344 -0.25511980724890215 0.054819214829851415 0.07934429570534896
0.33699842386579326 0.2352884763005595 0.7064757436563014 0.5636631577407477 0.692530335767204 0.8162516484489929 0.956016348729996 -0.31757575591775866 -0.09088968130481434 0.3497401356081207 -0.03200077858935613 -0.21798180651190302
0.9784242143381293 0.5480398294436792 0.2618953859987657 -0.5703930153291746 -0.3830968816819864 -0.3269154466667591 0.05096054703609032 0.013991494300367946 0.17604156293217743 0.6351733411101502 -0.29412921545295956 -0.9979422893670536
0.7751273771310502 -0.2404861092274374 0.07862312650019343 0.1640777065452731 -0.3897711065129761 0.6142739557381771 0.635574477009757 -0.12103077753862468 0.2221272108430663 -0.011178996482374859 0.42814213271587587 -0.42942077084768004
-0.4390553779212272 0.5742550563197512 0.33225636922943735 -0.15825741562662532 -0.5125982056894725 -0.006949929227912599 0.11431819049376524 -0.43420198728695825 0.9935702829611965 0.4419352894676989 -0.33426072936842344 -0.45276371064646737
0.8561361011579188 -0.06809245654339136 -0.8302309702366242 -0.5259730033907273 -0.6319971536837813 0.6666914295234301 0.6628758859053747 -0.3052408759275923 0.4730535992831365 0.250397222880808 0.7597477233077587 -0.6729013062058612
0.008861181142600816 -0.4823091429619265 0.37927517425234136 0.06995723612936089 -0.5441159332463564 -0.20191088708747273 -0.7346692305631009 0.91301460259895 -0.8299109064887787 -0.015100142655028792 -0.3732470955720617 0.1878374236689616
