0.05582920707361599 -0.04010734740098272 -0.1306385160982719 -0.02009476497024374 -0.08624020229254624 -0.1689112996025592 0.14163716114084943 0.10357719346432122 -0.09168351145547292 0.10423451799894035 0.0466037976359408 -0.08044907989154743
0.12084948097071804 -0.07120226171549109 -0.0260846697112318 -0.13857660120492868 0.10555637621579655 -0.14087271961349643 -0.18428347765348177 0.149254703818273 -0.10741871104932527 0.1721769214239394 -0.032302358577442014 -0.12274487119459465
-0.16651210789095205 0.12585181973390444 0.09074859681139578 -0.09395087869416399 -0.1914755815271763 -0.16376403960479943 -0.12863858080733911 0.05205030548248368 -0.057629288553239545 -0.06432357320569225 -0.19591706912755125 0.18353240430550716
0.0942193383474232 0.11670336923162741 0.1050994518967722 -0.012429749040134032 -0.11098687221567918 0.02025465802455262 0.128501777697353 -0.1016245055346695 0.18844015968257413 0.032060621115438 0.1989933326633588 -0.04666428484415106
0.032708321555368645 0.07179543808124529 -0.11041830186669165 0.1618351850398681 -0.1983395149055861 -0.10472271914383793 -0.14394889453472676 -0.015578999071919064 0.011784178954644009 -0.09474563935015073 -0.13852915679295666 0.029352065409555594
0.17598100892464288 -0.12309453147710024 0.012328750702440461 0.005130432987943046 -0.057797014718348284 -0.12744822025268507 -0.12175043173964047 -0.016977008522538917 0.0462983388552825 -0.1800561449825786 0.17082296717359566 0.14408608010380441
0.13543435616887253 -0.017101554457969126 0.09274851813152925 -0.15186547995321284 0.03596139823996141 -0.055241462449562295 -0.10505453782303471 -0.1877071842351065 0.04117134200174082 0.017712661980682755 -0.016444385549408882 -0.03828393986796979
