-0.5895644879381333 -0.8588532862514054 -0.8074606996162669 0.7590896160283134 0.2551293148991849 -0.08332488761728618 -0.783168694905889 0.033715851856887746 0.8707595750645882 0.8003821996715238 -0.1794805059671517 -0.23793112155655816
-0.8362169231310848 0.38136561521607704 0.06142851275743999 -0.2373778680927685 -0.17919851739161596 -0.7120637167037124 -0.763097731572643 0.23296705443643329 -0.47811744617918417 -0.010492931259528882 -0.309707679803226 0.3611797745047445
0.36637078905000364 0.308690953895121 -0.7406915326059863 0.34831361564187224 0.020310657597474302 0.649135351331779 0.35335464289676355 -0.5092095185328869 0.893703153137467 0.11234825341260624 0.42522814889017035 0.3125718502179765
-0.1603694050767508 -0.1388727205568877 0.21821388043834378 -0.2509189919220354 0.2503080127858769 -0.43542197259871374 -0.5771021244559155 -0.09847041303725312 -0.38232687147787836 0.011048777428668388 0.0017212202700133128 0.49716918494315154
0.7698557373290038 0.18072417397930152 0.07255260172397804 0.3231190355971816 0.4215065194749087 0.41868775837705763 -0.4271516305872177 -0.4296576710472939 0.2273754764770094 -0.01557367894282169 0.3987216005240267 0.9031333614539622
-0.84464945143249 -0.579482802068344 -0.3282170362509853 -0.27978887596535584 0.2862837115571233 -0.07610659962529298 0.37765538635012574 -0.7965660062203915 -0.2508856151734351 0.7159136792706505 0.449335297798622 -0.5963530478238684
0.4975945073251009 -0.21285812888486044 0.02262392512531941 0.5490534430236353 0.7610659343373867 -0.47247763708292645 0.9576710293532261 0.23096769046323684 -0.42744439046413296 0.2984533664994188 0.22959723019078115 0.1284259300521703
