0.01157399247581985 -0.07897418572890157 -0.09457537511198066 -0.18924944057535767 0.11930489379976167 -0.03484196899206284 -0.08461014935317719 0.14078441229326139 0.02844759550294893 0.1872471089779186 -0.18083672578754176 -0.06726178330625503
-0.158964177424469 0.1705486945049203 0.015669345879164843 -0.19470978352234833 0.1078918116069748 0.17416916360768533 0.023099996233000433 -0.17049215659739803 0.1208325018483087 0.11533149043130911 0.19803916796404475 0.03330661251036076
0.10324670425195799 0.13870677396813993 0.12558651013100697 -0.18962232524081657 0.13438004920398858 -0.15433162708359563 -0.1417782926040465 0.1739616143809749 0.07865777405609241 -0.0977534411059433 -0.08703031079844142 0.057379045410363275
0.12385348137238168 0.015965147812599636 -0.04550061517915918 -0.12873005009192737 -0.1400740645694874 0.15179220596090565 -0.12253874387276405 1.4128762272105355E-4 0.07455290774050201 0.14630902806125934 0.15361118328675719 -0.06696171225059247
-0.1963414123575043 -0.018921339761612633 -0.10995475902862704 0.19292975791616318 -0.0936987646770628 0.030637131507681128 -0.11964989022809501 -0.18308622175667946 -0.047191494922148004 0.011740098948362789 0.015939827321923252 0.0013372704250089297
0.11327208325397434 -0.16821452862738273 0.15025574469190134 0.018825655479435533 0.08413210167420809 -0.1644693442184575 -0.0642535924140312 -0.003850921733435664 -0.16724148035930236 -0.1401737784835765 -0.08495865130290695 0.05192058926185825
0.06547248543855977 -0.12712049000458717 0.18554557141065275 0.005142715938939624 0.03596139823996141 -0.10794636876898865 0.1406772848450562 0.013741359484961935 0.11844831585547957 0.09667671774411826 -0.08793633096944764 -0.19710723272094693
